Language model created by QuickLM on Thu Dec  7 15:03:26 EST 2017
Copyright (c) 1996-2010 Carnegie Mellon University and Alexander I. Rudnicky

The model is in standard ARPA format, designed by Doug Paul while he was at MITRE.

The code that was used to produce this language model is available in Open Source.
Please visit http://www.speech.cs.cmu.edu/tools/ for more information

The (fixed) discount mass is 0.5. The backoffs are computed using the ratio method.
This model based on a corpus of 5 sentences and 7 words

\data\
ngram 1=7
ngram 2=10
ngram 3=5

\1-grams:
-0.7782 </s> -0.3010
-0.7782 <s> -0.2218
-1.4771 APPLE -0.2218
-1.4771 BANANA -0.2218
-1.4771 GRAPEFRUIT -0.2218
-1.4771 KEYWORD -0.2218
-1.4771 ORANGE -0.2218

\2-grams:
-1.0000 <s> APPLE 0.0000
-1.0000 <s> BANANA 0.0000
-1.0000 <s> GRAPEFRUIT 0.0000
-1.0000 <s> KEYWORD 0.0000
-1.0000 <s> ORANGE 0.0000
-0.3010 APPLE </s> -0.3010
-0.3010 BANANA </s> -0.3010
-0.3010 GRAPEFRUIT </s> -0.3010
-0.3010 KEYWORD </s> -0.3010
-0.3010 ORANGE </s> -0.3010

\3-grams:
-0.3010 <s> APPLE </s>
-0.3010 <s> BANANA </s>
-0.3010 <s> GRAPEFRUIT </s>
-0.3010 <s> KEYWORD </s>
-0.3010 <s> ORANGE </s>

\end\
